0.00594454547785
[ -7.97635912e-03  -7.57657741e-03  -6.53222467e-03  -5.69921806e-03
  -4.10954644e-03  -4.44239215e-03  -4.26806408e-03  -2.76825213e-03
  -2.29803638e-04   7.59768118e-03   8.14164847e-03   7.97444271e-03
   8.05094360e-03   8.93513451e-03   9.80658354e-03   1.07847020e-02
   1.25041465e-02   1.59594091e-02  -9.35751568e-03  -8.95513225e-03
   1.22938767e-02   6.41213546e-03   1.63589862e-02   1.24667268e-02
   6.65306211e-02   1.55154365e-01   2.22321098e-01  -2.74550837e-02
  -2.17820885e-02  -7.41248612e-03   4.49724524e-03   1.59126237e-02
   1.52821789e-02   4.31280159e-02   8.45426624e-02   1.25669634e-01
   4.45441628e-02   3.31960238e-02   3.18047770e-02   5.47380914e-03
  -1.03713876e-03  -2.44460429e-03   2.64227795e-02   4.36371159e-02
   4.11195435e-02  -1.93174924e-02  -2.14646640e-02  -1.56913134e-02
  -1.56929241e-02  -1.60940872e-02  -1.08611926e-02   1.27259569e-02
   5.34472046e-02   9.73036172e-02  -6.40545805e-03  -9.32767634e-03
  -4.66881105e-03  -9.50661956e-03  -1.28383208e-02  -8.69777725e-03
   1.58669475e-02   5.26052116e-02   8.73407792e-02  -1.08057471e-03
  -4.55557088e-03  -1.16939804e-02  -1.68128879e-02  -1.56233909e-02
  -8.10740412e-03   9.59553541e-03   3.93855693e-02   6.73069538e-02
  -3.35450070e-03  -7.49054993e-04  -4.84725472e-04  -8.05975981e-03
  -1.19329164e-02  -8.68220768e-03  -1.53360567e-03   3.21956433e-02
   9.94167663e-02   3.37526202e-02   2.75995872e-02   2.74959901e-02
   1.86660514e-02   1.44905102e-02   1.56411914e-02   1.29321681e-02
   1.71192774e-01   3.71202798e-01  -2.32641436e-02  -6.08185069e-02
  -1.12451150e-01   1.19942484e-02   3.68600274e-02   1.36522446e-01
  -1.42008799e-02  -5.30582890e-02  -1.29374991e-01   1.83650098e-03
   3.54377965e-04  -6.64640604e-04  -1.05306333e-03  -1.78598774e-03
  -2.57094023e-03  -4.41998179e-03  -4.37283438e-03  -5.02522114e-03
  -1.77522928e-02   9.41755731e-04  -4.70919281e-03   2.07318309e-03
   8.03425599e-03   9.42999542e-03   2.82779188e-02   8.00584638e-02
   1.28695886e-01   5.67703442e-03   5.22056487e-03   6.15199146e-03
   6.88497819e-03   9.69093743e-03   1.02497805e-02   1.30593069e-02
   1.82568920e-02   2.52874578e-02   1.20499494e-04   1.82463627e-03
  -1.77231587e-03   2.64261625e-03  -1.08070705e-03  -9.43745342e-05
  -1.74766593e-03   1.78896958e-03   1.27642093e-03  -1.46874183e-03
  -9.36982859e-04   1.22978632e-04  -5.74178775e-04   3.01253733e-03
  -3.47012410e-04  -3.11257352e-03  -3.56176173e-03   1.79901656e-03
  -1.51851446e-02  -1.30683683e-02  -1.00245189e-02  -6.55878740e-03
  -8.75007124e-03  -1.26557806e-02  -1.96771340e-02  -2.13640199e-02
  -1.87152311e-02  -2.65435388e-02  -2.95468520e-02  -3.30886983e-02
  -2.11154784e-02  -6.53657283e-03  -5.86379578e-03  -2.11813716e-02
  -1.46185761e-02  -2.41795712e-03]